%YAML:1.0
my_svm: !!opencv-ml-svm
   svm_type: EPS_SVR
   kernel: { type:RBF, gamma:1. }
   C: 10.
   p: 1.0000000000000000e-04
   term_criteria: { epsilon:9.9999997473787516e-05, iterations:2147483647 }
   var_all: 2
   var_count: 2
   sv_total: 68
   support_vectors:
      - [ 47560., 29. ]
      - [ 23140., 20. ]
      - [ 11881., 12. ]
      - [ 12770., 13. ]
      - [ 13693., 14. ]
      - [ 11240., 12. ]
      - [ 21341., 19. ]
      - [ 54370., 31. ]
      - [ 13925., 16. ]
      - [ 16650., 18. ]
      - [ 36530., 25. ]
      - [ 32436., 23. ]
      - [ 9805., 12. ]
      - [ 27565., 22. ]
      - [ 18773., 18. ]
      - [ 42913., 25. ]
      - [ 15130., 16. ]
      - [ 24660., 15. ]
      - [ 20389., 13. ]
      - [ 21970., 11. ]
      - [ 84793., 29. ]
      - [ 28514., 14. ]
      - [ 19856., 10. ]
      - [ 97162., 31. ]
      - [ 50905., 21. ]
      - [ 47930., 19. ]
      - [ 57746., 20. ]
      - [ 114529., 34. ]
      - [ 20389., 14. ]
      - [ 19825., 13. ]
      - [ 31954., 17. ]
      - [ 70165., 26. ]
      - [ 24466., 14. ]
      - [ 60065., 24. ]
      - [ 40330., 19. ]
      - [ 56953., 23. ]
      - [ 108485., 32. ]
      - [ 34432., 18. ]
      - [ 62530., 24. ]
      - [ 66161., 24. ]
      - [ 61416., 23. ]
      - [ 32976., 17. ]
      - [ 21281., 13. ]
      - [ 18346., 13. ]
      - [ 18640., 13. ]
      - [ 48861., 12. ]
      - [ 58082., 12. ]
      - [ 58922., 13. ]
      - [ 45785., 11. ]
      - [ 33749., 10. ]
      - [ 41533., 10. ]
      - [ 58500., 13. ]
      - [ 93034., 18. ]
      - [ 80330., 14. ]
      - [ 59949., 13. ]
      - [ 59042., 13. ]
      - [ 37210., 11. ]
      - [ 86050., 16. ]
      - [ 40081., 10. ]
      - [ 40450., 9. ]
      - [ 73090., 9. ]
      - [ 40450., 10. ]
      - [ 87754., 11. ]
      - [ 49480., 11. ]
      - [ 45065., 11. ]
      - [ 52240., 10. ]
      - [ 42930., 11. ]
      - [ 49010., 11. ]
   decision_functions:
      -
         sv_count: 68
         rho: -0.5781968399289338
         alpha: [ -0.2780624927356839, -0.2780624927356839,
             -0.2780624927356839, -0.2780624927356839,
             -0.2780624927356839, -0.2780624927356839,
             -0.2780624927356839, -0.2781412307374650,
             -0.2780624927356840, -0.2781465106915557,
             -0.2781192790775134, -0.2781412307374649,
             -0.2781080976854468, -0.2781080976854468,
             -0.2781080976854468, -0.2781080976854468,
             -0.2781080976854468, -0.0780625046566129,
             -0.0571315111973209, -0.0781412426583939,
             -0.0780625046566129, -0.0780625046566129,
             -0.0780625046566129, -0.0780625046566129,
             -0.0780625046566129, -0.0781081096063757,
             -0.0781081096063757, -0.0781081096063757,
             -0.0570905814341411, -0.0780500065192580,
             -0.0780500065192580, -0.0780500065192580,
             -0.0780500065192580, -0.0780500065192580,
             -0.0780500065192580, -0.0780500065192580,
             -0.0781081096063756, -0.0781080903694305,
             -0.0781412426583939, -0.0781412426583939,
             -0.0781412426583939, -0.0781465226124847,
             -0.0780847759379461, -0.0781081096063755,
             -0.0781081096063755, 0.2216919023145533, 0.2216919023145533,
             0.2216919023145533, 0.2216919023145533, 0.2216893263238294,
             0.2216534893084443, 0.2216587692625352, 0.2217375072643161,
             0.2217375072643161, 0.2217375072643161, 0.2217375072643161,
             0.2217375072643161, 0.2216919023145534, 0.4216587573416061,
             0.3082956582394135, 0.4216587573416061, 0.3083063370993221,
             0.4216534773875154, 0.4216587573416063, 0.4216534773875154,
             0.4216587573416062, 0.4216587573416062, 0.4217374953433872 ]
